<?xml version="1.0"?>
<opencv_storage>
<cascade>
  <stageType>BOOST</stageType>
  <featureType>HAAR</featureType>
  <height>24</height>
  <width>24</width>
  <stageParams>
    <boostType>GAB</boostType>
    <minHitRate>9.9500000476837158e-01</minHitRate>
    <maxFalseAlarm>5.0000000000000000e-01</maxFalseAlarm>
    <weightTrimRate>9.4999998807907104e-01</weightTrimRate>
    <maxDepth>1</maxDepth>
    <maxWeakCount>100</maxWeakCount></stageParams>
  <featureParams>
    <maxCatCount>0</maxCatCount>
    <featSize>1</featSize>
    <mode>BASIC</mode></featureParams>
  <stageNum>6</stageNum>
  <stages>
    <!-- stage 0 -->
    <_>
      <maxWeakCount>2</maxWeakCount>
      <stageThreshold>4.6514514833688736e-03</stageThreshold>
      <weakClassifiers>
        <_>
          <internalNodes>
            0 -1 6 -9.6000283956527710e-02</internalNodes>
          <leafValues>
            1. -9.5121949911117554e-01</leafValues></_>
        <_>
          <internalNodes>
            0 -1 9 1.9302472472190857e-02</internalNodes>
          <leafValues>
            -1. 9.5587098598480225e-01</leafValues></_></weakClassifiers></_>
    <!-- stage 1 -->
    <_>
      <maxWeakCount>1</maxWeakCount>
      <stageThreshold>9.0588235855102539e-01</stageThreshold>
      <weakClassifiers>
        <_>
          <internalNodes>
            0 -1 3 -6.2374263070523739e-03</internalNodes>
          <leafValues>
            9.0588235855102539e-01 -1.</leafValues></_></weakClassifiers></_>
    <!-- stage 2 -->
    <_>
      <maxWeakCount>2</maxWeakCount>
      <stageThreshold>5.4155223071575165e-02</stageThreshold>
      <weakClassifiers>
        <_>
          <internalNodes>
            0 -1 4 -2.1498666703701019e-01</internalNodes>
          <leafValues>
            9.4936710596084595e-01 -9.0243899822235107e-01</leafValues></_>
        <_>
          <internalNodes>
            0 -1 0 -1.4813527464866638e-01</internalNodes>
          <leafValues>
            9.5659422874450684e-01 -8.4159421920776367e-01</leafValues></_></weakClassifiers></_>
    <!-- stage 3 -->
    <_>
      <maxWeakCount>2</maxWeakCount>
      <stageThreshold>-4.0146406739950180e-02</stageThreshold>
      <weakClassifiers>
        <_>
          <internalNodes>
            0 -1 8 1.1906971037387848e-01</internalNodes>
          <leafValues>
            -7.9069769382476807e-01 9.2000001668930054e-01</leafValues></_>
        <_>
          <internalNodes>
            0 -1 2 -1.1651406530290842e-03</internalNodes>
          <leafValues>
            7.5055128335952759e-01 -9.5625919103622437e-01</leafValues></_></weakClassifiers></_>
    <!-- stage 4 -->
    <_>
      <maxWeakCount>1</maxWeakCount>
      <stageThreshold>6.7010307312011719e-01</stageThreshold>
      <weakClassifiers>
        <_>
          <internalNodes>
            0 -1 1 -1.1417282745242119e-02</internalNodes>
          <leafValues>
            -1. 6.7010307312011719e-01</leafValues></_></weakClassifiers></_>
    <!-- stage 5 -->
    <_>
      <maxWeakCount>2</maxWeakCount>
      <stageThreshold>-8.5470654070377350e-02</stageThreshold>
      <weakClassifiers>
        <_>
          <internalNodes>
            0 -1 7 -1.4516557753086090e-01</internalNodes>
          <leafValues>
            8.9041095972061157e-01 -7.2727274894714355e-01</leafValues></_>
        <_>
          <internalNodes>
            0 -1 5 6.2590492889285088e-03</internalNodes>
          <leafValues>
            6.4180207252502441e-01 -1.</leafValues></_></weakClassifiers></_></stages>
  <features>
    <_>
      <rects>
        <_>
          0 0 16 14 -1.</_>
        <_>
          0 0 8 7 2.</_>
        <_>
          8 7 8 7 2.</_></rects>
      <tilted>0</tilted></_>
    <_>
      <rects>
        <_>
          1 8 3 12 -1.</_>
        <_>
          1 14 3 6 2.</_></rects>
      <tilted>0</tilted></_>
    <_>
      <rects>
        <_>
          1 22 12 2 -1.</_>
        <_>
          1 23 12 1 2.</_></rects>
      <tilted>0</tilted></_>
    <_>
      <rects>
        <_>
          2 7 4 16 -1.</_>
        <_>
          2 15 4 8 2.</_></rects>
      <tilted>0</tilted></_>
    <_>
      <rects>
        <_>
          5 6 15 8 -1.</_>
        <_>
          10 6 5 8 3.</_></rects>
      <tilted>0</tilted></_>
    <_>
      <rects>
        <_>
          5 22 12 2 -1.</_>
        <_>
          9 22 4 2 3.</_></rects>
      <tilted>0</tilted></_>
    <_>
      <rects>
        <_>
          6 6 12 7 -1.</_>
        <_>
          10 6 4 7 3.</_></rects>
      <tilted>0</tilted></_>
    <_>
      <rects>
        <_>
          10 0 3 21 -1.</_>
        <_>
          10 7 3 7 3.</_></rects>
      <tilted>0</tilted></_>
    <_>
      <rects>
        <_>
          10 0 14 14 -1.</_>
        <_>
          10 0 7 7 2.</_>
        <_>
          17 7 7 7 2.</_></rects>
      <tilted>0</tilted></_>
    <_>
      <rects>
        <_>
          12 7 1 16 -1.</_>
        <_>
          12 15 1 8 2.</_></rects>
      <tilted>0</tilted></_></features></cascade>
</opencv_storage>
